svm_type c_svc
kernel_type linear
nr_class 2
total_sv 1451
rho -0.99959134268556959
label 0 1
nr_sv 724 727
SV
1 17:1 
1 1:1 
1 17:1 
1 17:1 
1 17:1 
1 17:1 
1 17:1 
1 17:1 
1 17:1 
1 17:1 
1 17:1 
1 17:1 
1 17:1 
1 17:1 
1 17:1 
1 17:1 
1 17:1 
1 17:1 
1 17:1 
1 17:1 
1 17:1 
1 17:1 
1 17:1 
1 17:1 
1 13:1 15:1 
1 17:1 
1 17:1 
1 17:1 
1 17:1 
1 17:1 
1 17:1 
1 17:1 
1 17:1 
1 17:1 
1 17:1 
1 17:1 
1 17:1 
1 12:1 
1 12:1 
1 12:1 
1 12:1 
1 12:1 
1 12:1 
1 12:1 
1 12:1 
1 12:1 
1 12:1 
1 12:1 
1 12:1 
1 12:1 
1 12:1 
1 17:1 
1 12:1 
1 12:1 
1 12:1 
1 17:1 
1 12:1 
1 12:1 
1 3:1 13:1 
1 12:1 
1 12:1 
1 12:1 
1 12:1 
1 12:1 
1 3:1 
1 12:1 
1 12:1 
1 17:1 
1 12:1 
1 12:1 
1 12:1 
1 17:1 
1 12:1 
1 12:1 
1 12:1 
1 12:1 
1 12:1 
1 12:1 
1 12:1 
1 12:1 
1 12:1 
1 17:1 
1 12:1 
1 12:1 
0.51105967078189307 3:1 4:1 13:1 16:1 
1 12:1 
1 12:1 
1 12:1 
1 12:1 
1 12:1 
1 12:1 
1 12:1 
1 12:1 
1 12:1 
1 12:1 
1 12:1 
1 12:1 
1 3:1 4:1 13:1 16:1 
1 12:1 
1 17:1 
1 12:1 
1 12:1 
1 12:1 
1 12:1 
1 17:1 
1 17:1 
1 12:1 
1 12:1 
1 12:1 
1 12:1 
1 12:1 
1 3:1 4:1 13:1 16:1 
1 12:1 
1 17:1 
1 12:1 
1 12:1 
1 17:1 
1 12:1 
1 12:1 
1 3:1 4:1 13:1 16:1 
1 12:1 
1 12:1 
1 12:1 
1 12:1 
1 12:1 
1 12:1 
0.58785553099967891 13:1 
1 12:1 
1 13:1 
1 13:1 
1 13:1 
1 13:1 
1 13:1 
1 13:1 
1 13:1 
1 13:1 
1 13:1 
1 13:1 
1 13:1 
1 13:1 
1 13:1 
1 13:1 
1 13:1 
1 13:1 
1 13:1 
1 13:1 
0.98922653220206958 3:1 4:1 13:1 16:1 
1 13:1 
1 13:1 
1 13:1 
1 13:1 
1 13:1 
1 12:1 
1 12:1 
1 13:1 
1 13:1 
1 13:1 
1 13:1 
1 13:1 
1 13:1 
1 13:1 
1 13:1 
1 13:1 
1 13:1 
1 13:1 
1 13:1 
1 13:1 
1 13:1 
1 13:1 
1 13:1 
1 13:1 
1 13:1 
1 13:1 
1 13:1 
1 12:1 
1 13:1 
1 13:1 
1 13:1 
1 13:1 
1 13:1 
1 13:1 
1 13:1 
1 13:1 
1 13:1 
1 13:1 
1 13:1 
1 12:1 
1 13:1 
1 13:1 
1 13:1 
1 13:1 
1 13:1 
1 13:1 
1 13:1 
1 13:1 
1 13:1 
1 13:1 
1 13:1 
0.4082258616784365 15:1 
1 13:1 
1 15:1 
1 15:1 
1 15:1 
1 13:1 
1 13:1 
1 13:1 
1 13:1 
1 13:1 
1 12:1 
1 13:1 
1 13:1 
1 13:1 
1 13:1 
1 15:1 
1 15:1 
1 13:1 
1 13:1 
1 13:1 
1 13:1 
1 13:1 
1 13:1 
1 13:1 
1 13:1 
1 15:1 
1 15:1 
1 
1 
1 
1 
1 
1 
1 
1 
1 
1 
1 
1 
1 
1 
1 
1 
1 
1 
1 
1 
1 
1 
1 
1 13:1 
1 
1 
1 
1 
1 
1 
1 
1 
1 
1 
1 
1 
1 
1 
1 
1 
1 
1 
1 
1 
1 
1 
1 
1 
1 
1 
1 
1 
1 
1 
1 
1 
1 
1 
1 
1 
1 
1 
1 
1 
1 
1 
1 
1 
1 
1 
1 
1 
1 
1 
1 
1 
1 
1 
1 
1 
1 
1 
1 
1 
1 
1 
1 
1 
1 
1 
1 
1 
1 
1 
1 
1 
1 
1 
1 
1 
1 
1 
1 
1 
1 
1 
1 
1 
1 
1 
1 
1 
1 
1 
1 
1 
1 
1 
1 
1 
1 
1 
1 
1 
1 
1 
1 
1 
1 
1 
1 
1 
1 
1 
1 
1 
1 
1 
1 
1 
1 
1 
1 
1 
1 
1 
1 
1 
1 
1 
1 
1 
1 
1 
1 
1 
1 
1 
1 
1 
1 
1 
1 
1 
1 
1 
1 
1 
1 
1 
1 
1 
1 
1 
1 
1 
1 
1 
1 
1 
1 
1 
1 
1 
1 
1 
1 
1 
1 
1 
1 
1 
1 
1 
1 
1 
1 
1 
1 
1 
1 
1 
1 
1 
1 
1 
1 
1 
1 
1 
1 
1 
1 
1 
1 
1 
1 
1 
1 
1 
1 
1 
1 
1 
1 
1 
1 
1 
1 
1 
1 
1 
1 
1 
1 
1 
1 
1 
1 
1 
1 
1 
1 
1 
1 
1 
1 
1 
1 
1 
1 
1 
1 
1 
1 
1 
1 
1 
1 
1 
1 
1 
1 
1 
1 
1 
1 
1 
1 
1 
1 
1 
1 
1 
1 
1 
1 
1 
1 
1 
1 
1 
1 
1 
1 
1 
1 
1 
1 
1 
1 
1 
1 
1 
1 
1 
1 
1 
1 
1 
1 
1 
1 
1 
1 
1 
1 
1 
1 
1 
1 
1 
1 
1 
1 
1 
1 
1 
1 
1 
1 
1 
1 13:1 
1 
1 
1 
1 
1 
1 
1 
1 
1 
1 
1 
1 
1 
1 
1 
1 
1 
1 
1 
1 
1 
1 
1 
1 
1 
1 
1 
1 
1 
1 
1 
1 
1 
1 
1 
1 
1 
1 
1 
1 
1 
1 
1 
1 
1 
1 
1 
1 
1 
1 
1 
1 
1 
1 
1 
1 
1 
1 
1 
1 
1 
1 
1 
1 
1 
1 
1 
1 
1 
1 
1 
1 13:1 
1 
1 
1 
1 
1 
1 
1 
1 
1 
1 
1 
1 
1 
1 
1 
1 13:1 
1 
1 
1 
1 
1 
1 
1 
1 
1 
1 
1 
1 
1 
1 
1 
1 
1 
1 
1 
1 
1 
1 
1 
1 
1 
1 
1 
1 
1 
1 
1 
1 
1 
1 
1 
1 
1 
1 
1 
1 
1 
1 
1 
1 
1 
1 
1 
1 
1 
1 
1 
1 
1 
1 
1 
1 
1 
1 
1 
1 
1 
1 
1 
1 
1 
1 
1 
1 
1 
1 
1 
1 
1 
1 
1 
1 
1 
1 
1 
1 
1 
1 
1 
1 
1 
1 13:1 
1 
1 
-1 
-1 
-1 
-1 
-1 
-1 
-1 
-1 
-1 
-1 
-1 
-1 12:1 
-1 
-1 
-1 4:1 
-1 
-1 
-1 
-1 
-1 
-1 
-1 15:1 
-1 
-1 13:1 
-1 
-1 
-1 
-1 
-1 
-1 
-1 12:1 
-1 
-1 12:1 
-1 
-1 
-1 
-1 12:1 
-1 13:1 
-1 
-1 
-1 13:1 
-1 4:1 16:1 
-1 
-1 13:1 
-1 
-1 
-1 
-1 
-1 4:1 
-1 
-1 13:1 
-1 
-1 13:1 
-1 
-1 12:1 
-1 
-1 13:1 
-1 
-1 
-1 
-1 12:1 
-1 
-1 
-1 
-1 12:1 
-1 
-1 13:1 
-1 13:1 
-1 
-1 
-1 
-1 
-1 
-1 
-1 
-1 12:1 
-1 13:1 
-1 
-1 
-1 12:1 
-1 
-1 
-1 
-1 
-1 
-1 13:1 
-1 
-1 
-1 
-1 12:1 
-1 
-1 
-1 
-1 
-1 12:1 
-1 
-1 
-1 
-1 
-1 
-1 
-1 
-1 12:1 13:1 
-1 13:1 
-1 12:1 
-1 12:1 
-1 
-1 
-1 
-1 12:1 
-1 
-1 
-1 
-1 
-1 
-1 
-1 
-1 12:1 13:1 
-1 
-1 
-1 
-1 
-1 13:1 
-1 
-1 13:1 
-1 
-1 
-1 4:1 
-1 
-1 12:1 
-1 
-1 
-1 13:1 
-1 
-1 
-1 13:1 
-1 
-1 
-1 15:1 
-1 12:1 
-1 12:1 
-1 
-1 
-1 
-1 
-1 
-1 12:1 
-1 9:1 
-1 
-1 
-1 
-1 
-1 
-1 12:1 
-1 
-1 
-1 
-1 12:1 
-1 
-1 
-1 4:1 
-1 
-1 13:1 15:1 
-1 
-1 12:1 
-1 12:1 
-1 
-1 
-1 
-1 13:1 
-1 
-1 12:1 
-1 
-1 
-1 
-1 
-1 
-1 
-1 
-1 13:1 
-1 12:1 
-1 
-1 13:1 
-1 
-1 12:1 
-1 
-1 
-1 
-1 
-1 12:1 
-1 
-1 
-1 
-1 
-1 
-1 
-1 
-1 12:1 
-1 
-1 
-1 
-1 
-1 
-1 12:1 
-1 13:1 
-1 
-1 
-1 
-1 13:1 
-1 12:1 
-1 
-1 
-1 
-1 
-1 
-1 13:1 
-1 
-1 13:1 
-1 
-1 
-1 
-1 
-1 
-1 
-1 13:1 
-1 
-1 
-1 
-1 13:1 
-1 
-1 15:1 
-1 
-1 
-1 
-1 
-1 12:1 
-1 
-1 
-1 12:1 
-1 
-1 13:1 
-1 13:1 
-1 
-1 
-1 12:1 
-1 
-1 
-1 
-1 
-1 
-1 
-1 
-1 
-1 
-1 
-1 
-1 
-1 
-1 
-1 
-1 
-1 
-1 
-1 12:1 
-1 13:1 
-1 
-1 
-1 12:1 
-1 
-1 
-1 
-1 
-1 
-1 
-1 13:1 
-1 
-1 
-1 
-1 
-1 13:1 
-1 
-1 13:1 
-1 
-1 
-1 
-1 
-1 12:1 
-1 
-1 13:1 
-1 
-1 12:1 
-1 
-1 
-1 15:1 
-1 
-1 
-1 
-1 
-1 
-1 
-1 
-1 
-1 12:1 
-1 
-1 
-1 
-1 13:1 
-1 13:1 
-1 
-1 
-1 12:1 
-1 13:1 
-1 
-1 12:1 
-1 12:1 
-1 
-1 
-1 13:1 
-1 
-1 
-1 12:1 
-1 
-1 13:1 
-1 
-1 13:1 
-1 
-1 
-1 
-1 
-1 12:1 
-1 
-1 
-1 
-1 
-1 
-1 
-1 
-1 13:1 
-1 
-1 12:1 
-1 
-1 
-1 
-1 
-1 
-1 
-1 
-1 
-1 
-1 12:1 
-1 
-1 
-1 
-1 
-1 
-1 12:1 
-1 12:1 
-1 
-1 
-1 
-1 
-1 
-1 
-1 13:1 
-1 12:1 
-1 
-1 13:1 
-1 
-1 13:1 
-1 13:1 
-1 
-1 12:1 
-1 
-1 
-1 13:1 
-1 
-1 13:1 
-1 
-1 13:1 
-1 
-1 
-1 
-1 
-1 12:1 
-1 
-1 
-1 13:1 
-1 13:1 
-1 
-1 
-1 
-1 12:1 
-1 
-1 
-1 13:1 
-1 
-1 
-1 4:1 
-1 
-1 
-1 
-1 
-1 
-1 12:1 
-1 
-1 
-1 
-1 
-1 
-1 
-1 
-1 
-1 13:1 
-1 13:1 
-1 
-1 
-1 
-1 
-1 
-1 
-1 
-1 
-1 
-1 
-1 12:1 
-1 13:1 
-1 12:1 
-1 
-1 
-1 
-1 
-1 12:1 
-1 
-1 13:1 
-1 
-1 
-1 12:1 13:1 
-1 
-1 13:1 
-1 12:1 
-1 
-1 13:1 
-1 13:1 
-1 
-1 
-1 
-1 
-1 
-1 12:1 13:1 
-1 
-1 
-1 
-1 
-1 
-1 13:1 
-1 
-1 
-1 13:1 
-1 
-1 
-1 13:1 
-1 
-1 
-1 13:1 
-1 
-1 
-1 
-1 
-1 
-1 
-1 
-1 
-1 13:1 
-1 
-1 
-1 
-1 
-1 
-1 
-1 
-1 
-1 
-1 
-1 
-1 
-1 
-1 
-1 
-1 
-1 
-1 13:1 
-1 13:1 
-1 
-1 
-1 
-1 12:1 
-1 
-1 12:1 13:1 
-1 13:1 
-1 14:1 
-1 
-1 
-1 
-1 
-1 
-1 
-1 
-1 
-1 
-1 
-1 13:1 
-1 
-1 
-1 
-1 12:1 
-1 13:1 
-1 
-1 
-1 
-1 13:1 
-1 
-1 
-1 
-1 
-1 
-1 
-1 12:1 
-1 13:1 
-1 12:1 
-1 
-1 
-1 
-1 
-1 
-1 
-1 
-1 12:1 
-1 
-1 
-1 
-1 13:1 
-1 
-1 
-1 
-1 
-1 
-1 8:1 
-1 
-1 
-1 
-1 
-1 
-1 12:1 
-0.0010100192213247094 11:1 13:1 15:1 
-1 
-1 
-1 
-1 
-1 
-1 13:1 
-1 13:1 15:1 
-1 12:1 
-1 13:1 
-1 13:1 
-1 
-1 
-1 12:1 
-1 12:1 
-1 
-1 13:1 
-1 
-1 
-1 
-1 13:1 
-1 1:1 
-1 
-1 
-1 
-1 
-1 13:1 
-1 
-1 
-1 
-1 
-1 
-1 
-1 
-1 
-1 
-1 
-1 
-1 
-1 13:1 
-1 
-1 13:1 
-1 
-1 12:1 
-1 
-1 12:1 13:1 
-1 
-1 
-1 
-1 12:1 
-1 
-1 
-1 
-1 
-0.99963672031561357 14:1 
-1 
-1 17:1 
-1 
-1 
-1 
-1 
-1 17:1 
-1 
-1 17:1 
-1 
-1 17:1 
-1 17:1 
-1 
-1 17:1 
-1 17:1 
-1 
-1 17:1 
-1 
-1 12:1 13:1 
-1 17:1 
-1 17:1 
-1 
-1 
-1 17:1 
-1 17:1 
-1 17:1 
-1 13:1 
-1 17:1 
-1 17:1 
-1 
-1 17:1 
-1 12:1 13:1 
-1 
-1 17:1 
-1 
-1 10:1 15:1 
-1 12:1 
-1 17:1 
-1 17:1 
-1 13:1 
-1 13:1 
-1 
-1 
-1 17:1 
-1 
-1 17:1 
-1 17:1 
-1 17:1 
-1 17:1 
-1 
-1 12:1 
-1 17:1 
-1 17:1 
-1 17:1 
-1 
-1 17:1 
-1 17:1 
-1 
-1 12:1 
-1 
-0.99960905967219316 10:1 15:1 
-1 
-1 
-1 
-1 13:1 
-1 17:1 
-1 17:1 
-1 17:1 
-1 
-1 17:1 
-1 
-1 17:1 
-1 12:1 
-1 17:1 
-1 11:1 
-0.99966438095903398 8:1 
-1 
-0.052554869684499628 3:1 13:1 
-1 13:1 
-1 17:1 
-1 
-1 
-1 
-1 
-1 17:1 
-1 
-1 
-1 1:1 13:1 
-0.98422496570644724 3:1 13:1 
-0.99836153025453434 11:1 
-1 17:1 
-1 12:1 
-0.99926888050602047 1:1 13:1 
-1 
-1 
-1 17:1 
-1 
-1 17:1 
-1 17:1 
-1 17:1 
-1 17:1 
-1 17:1 
-1 
-0.94844535893918613 2:1 
-0.4076344434283391 3:1 15:1 
-1 17:1 
-1 2:1 
-1 17:1 
-0.055727023319615911 3:1 
-1 
-1 3:1 
-1 3:1 
-1 3:1 
-0.051064132119087724 2:1 13:1 
-1 3:1 
-0.99916621153618179 17:1 
-1 3:1 
-1 3:1 
-1 3:1 
