svm_type c_svc
kernel_type linear
nr_class 2
total_sv 3332
rho -0.99967206790123442
label 0 2
nr_sv 1664 1668
SV
1 8:1 
1 4:1 6:1 
1 4:1 6:1 
1 2:1 
1 4:1 6:1 
1 8:1 
1 4:1 6:1 
1 4:1 6:1 
1 4:1 6:1 
1 4:1 6:1 
1 4:1 6:1 
1 6:1 
1 8:1 
1 4:1 6:1 
1 4:1 6:1 
1 8:1 
1 4:1 6:1 
1 2:1 
1 8:1 
1 8:1 
1 8:1 
1 6:1 
1 4:1 6:1 
1 4:1 6:1 
1 4:1 6:1 
1 4:1 6:1 
1 4:1 6:1 
1 4:1 6:1 
1 8:1 
1 4:1 6:1 
1 4:1 6:1 
1 6:1 
1 6:1 
1 4:1 6:1 
1 2:1 
1 4:1 6:1 
1 4:1 6:1 
1 8:1 
1 5:1 7:1 8:1 17:1 
1 8:1 
1 4:1 6:1 
1 8:1 
1 4:1 6:1 
1 4:1 6:1 
1 4:1 6:1 
1 4:1 6:1 
1 4:1 6:1 
1 4:1 6:1 
1 4:1 6:1 
1 8:1 
1 5:1 7:1 8:1 17:1 
1 4:1 6:1 
1 8:1 
1 8:1 
1 2:1 
1 4:1 6:1 
1 4:1 6:1 
1 8:1 
1 4:1 6:1 
1 4:1 6:1 
1 4:1 6:1 
1 4:1 6:1 
1 2:1 
1 4:1 6:1 
1 4:1 6:1 
1 8:1 
1 4:1 6:1 
1 8:1 
1 4:1 6:1 
1 4:1 6:1 
1 8:1 
1 4:1 6:1 
1 4:1 6:1 
1 4:1 6:1 
1 4:1 6:1 
1 4:1 6:1 
1 4:1 6:1 
1 4:1 6:1 
1 4:1 6:1 
1 4:1 6:1 
1 7:1 8:1 17:1 
1 8:1 
1 4:1 6:1 
1 4:1 6:1 
1 4:1 6:1 7:1 17:1 
1 4:1 6:1 
1 4:1 6:1 
1 4:1 6:1 
1 4:1 6:1 
1 4:1 6:1 
1 8:1 
1 8:1 
1 7:1 8:1 17:1 
1 4:1 6:1 
1 6:1 
1 6:1 
1 4:1 6:1 
1 5:1 7:1 8:1 17:1 
1 4:1 6:1 
1 4:1 6:1 
1 4:1 6:1 
1 4:1 6:1 
1 8:1 
1 4:1 6:1 
1 8:1 
1 4:1 6:1 
1 4:1 6:1 
1 4:1 6:1 
1 4:1 6:1 
1 3:1 
1 2:1 
1 4:1 6:1 
1 4:1 6:1 
1 4:1 6:1 
1 8:1 
1 4:1 6:1 
1 4:1 6:1 
1 4:1 6:1 
1 4:1 6:1 
1 4:1 6:1 
1 4:1 6:1 
1 3:1 
1 4:1 6:1 
1 4:1 6:1 
1 4:1 6:1 
1 4:1 6:1 
1 4:1 6:1 
1 4:1 6:1 
1 4:1 6:1 
1 4:1 6:1 
1 4:1 6:1 
1 5:1 7:1 8:1 17:1 
1 2:1 
1 4:1 6:1 
1 6:1 
1 3:1 
1 7:1 8:1 17:1 
1 8:1 
1 4:1 6:1 
1 7:1 8:1 17:1 
1 4:1 6:1 
1 4:1 6:1 
1 6:1 
1 4:1 6:1 
1 7:1 8:1 17:1 
1 3:1 
1 5:1 7:1 8:1 17:1 
1 4:1 6:1 
1 4:1 6:1 
1 4:1 6:1 
1 4:1 6:1 
1 4:1 6:1 
1 3:1 
1 4:1 6:1 
1 4:1 6:1 
1 4:1 6:1 
1 8:1 
1 7:1 8:1 17:1 
1 4:1 6:1 
1 8:1 
1 4:1 6:1 
1 8:1 
1 4:1 6:1 
1 4:1 6:1 
1 4:1 6:1 
1 4:1 6:1 
1 8:1 
1 4:1 6:1 
1 4:1 6:1 
1 8:1 
1 7:1 8:1 17:1 
1 5:1 7:1 8:1 17:1 
1 4:1 6:1 
1 4:1 6:1 
1 5:1 7:1 8:1 17:1 
1 4:1 6:1 
1 4:1 6:1 
1 4:1 6:1 
1 4:1 6:1 
1 4:1 6:1 
1 4:1 6:1 
1 7:1 8:1 17:1 
1 3:1 
1 4:1 6:1 
1 4:1 6:1 
1 4:1 6:1 
1 3:1 
1 7:1 8:1 17:1 
1 7:1 8:1 17:1 
1 6:1 
1 4:1 6:1 
1 8:1 
1 3:1 
1 8:1 
1 4:1 6:1 
1 4:1 6:1 
1 7:1 8:1 17:1 
1 4:1 6:1 
1 8:1 
1 2:1 
1 4:1 6:1 
1 4:1 6:1 
1 4:1 6:1 
1 4:1 6:1 
1 4:1 6:1 
1 4:1 6:1 
1 4:1 6:1 
1 4:1 6:1 
1 4:1 6:1 
1 4:1 6:1 
1 4:1 6:1 
0.60246913580246841 7:1 17:1 
1 7:1 17:1 
1 7:1 17:1 
1 7:1 17:1 
1 7:1 17:1 
1 7:1 17:1 
1 7:1 17:1 
1 3:1 
1 7:1 17:1 
1 7:1 17:1 
1 7:1 17:1 
1 7:1 17:1 
1 7:1 17:1 
1 7:1 17:1 
1 7:1 17:1 
1 7:1 17:1 
1 7:1 17:1 
1 7:1 17:1 
1 7:1 17:1 
0.39598765432098815 
1 
1 
1 
1 
1 
1 
1 
1 
1 
1 
1 
1 
1 
1 
1 
1 
1 
1 
1 
1 
1 
1 
1 
1 
1 
1 
1 
1 
1 
1 
1 
1 
1 
1 
1 
1 
1 
1 
1 
1 
1 
1 
1 
1 
1 
1 
1 
1 
1 
1 
1 
1 
1 
1 
1 
1 
1 
1 
1 
1 
1 
1 
1 
1 
1 
1 
1 
1 
1 
1 
1 
1 
1 
1 
1 
1 
1 
1 
1 
1 
1 
1 
1 
1 7:1 17:1 
1 
1 
1 
1 
1 
1 
1 
1 
1 
1 
1 
1 
1 
1 
1 
1 
1 
1 
1 
1 
1 
1 
1 
1 
1 
1 
1 
1 
1 
1 
1 
1 
1 
1 
1 
1 
1 
1 
1 
1 
1 
1 
1 
1 
1 
1 
1 
1 
1 
1 
1 
1 
1 
1 
1 
1 
1 
1 
1 
1 
1 
1 
1 
1 
1 
1 
1 
1 
1 
1 
1 
1 
1 
1 
1 
1 
1 
1 
1 
1 
1 
1 
1 
1 
1 
1 
1 
1 
1 
1 
1 
1 
1 
1 
1 
1 
1 
1 
1 
1 
1 
1 
1 
1 
1 
1 
1 
1 
1 
1 
1 
1 
1 
1 
1 
1 
1 
1 
1 
1 
1 
1 
1 
1 
1 
1 
1 
1 
1 
1 
1 
1 
1 
1 
1 
1 
1 
1 
1 
1 
1 
1 
1 
1 
1 
1 
1 
1 
1 
1 
1 
1 
1 
1 
1 
1 
1 
1 
1 
1 
1 
1 
1 
1 
1 
1 
1 
1 
1 
1 
1 
1 
1 
1 
1 
1 
1 3:1 
1 
1 
1 
1 
1 
1 
1 
1 
1 
1 
1 
1 
1 
1 
1 
1 
1 
1 
1 
1 
1 
1 
1 
1 
1 
1 
1 
1 
1 
1 
1 
1 
1 
1 
1 
1 
1 
1 
1 
1 
1 
1 
1 
1 
1 
1 
1 
1 
1 
1 
1 
1 
1 
1 
1 
1 
1 
1 
1 
1 
1 
1 
1 
1 
1 
1 
1 
1 
1 
1 
1 
1 
1 
1 
1 
1 
1 
1 
1 
1 
1 
1 
1 
1 
1 
1 
1 
1 
1 
1 
1 
1 
1 
1 
1 
1 
1 
1 
1 
1 
1 
1 
1 
1 
1 
1 
1 
1 
1 
1 
1 
1 
1 
1 
1 
1 
1 
1 
1 
1 
1 
1 
1 
1 
1 
1 
1 
1 
1 
1 
1 
1 
1 
1 
1 
1 
1 
1 
1 
1 
1 
1 
1 
1 
1 
1 
1 
1 
1 
1 
1 
1 
1 
1 
1 
1 
1 
1 
1 
1 
1 
1 
1 
1 
1 
1 
1 
1 
1 
1 
1 
1 
1 
1 
1 
1 
1 
1 
1 
1 
1 
1 
1 
1 
1 
1 
1 
1 
1 
1 
1 
1 
1 
1 
1 
1 
1 
1 
1 
1 
1 
1 
1 
1 
1 
1 
1 
1 
1 
1 
1 
1 
1 
1 
1 
1 
1 
1 
1 
1 
1 
1 
1 
1 
1 
1 
1 
1 
1 
1 
1 
1 
1 
1 
1 
1 
1 
1 
1 
1 
1 
1 
1 
1 
1 
1 
1 
1 
1 
1 
1 
1 
1 
1 
1 
1 
1 
1 
1 
1 
1 
1 
1 
1 
1 
1 
1 
1 
1 
1 
1 
1 
1 
1 
1 
1 
1 
1 
1 
1 
1 
1 
1 
1 
1 
1 
1 
1 
1 
1 
1 
1 
1 
1 
1 
1 
1 
1 
1 
1 
1 
1 
1 
1 
1 
1 
1 
1 
1 
1 
1 
1 
1 
1 
1 
1 
1 
1 
1 
1 
1 
1 
1 
1 
1 
1 
1 
1 
1 
1 
1 
1 
1 
1 
1 
1 
1 
1 
1 
1 
1 
1 
1 
1 
1 
1 
1 
1 
1 
1 
1 
1 
1 
1 
1 
1 
1 
1 
1 
1 
1 
1 
1 
1 
1 
1 
1 
1 
1 7:1 17:1 
1 
1 
1 
1 
1 
1 
1 
1 
1 
1 
1 
1 
1 
1 
1 
1 
1 
1 
1 
1 
1 
1 
1 
1 
1 
1 
1 
1 
1 
1 
1 
1 
1 
1 
1 
1 
1 
1 
1 
1 
1 
1 
1 
1 
1 
1 
1 
1 
1 
1 
1 
1 
1 
1 
1 
1 
1 
1 
1 
1 
1 
1 
1 
1 
1 
1 
1 
1 
1 
1 
1 
1 
1 
1 
1 
1 
1 
1 
1 
1 
1 
1 
1 
1 
1 
1 
1 
1 
1 
1 
1 
1 
1 
1 
1 
1 
1 
1 
1 
1 
1 
1 
1 
1 
1 
1 
1 
1 
1 
1 
1 
1 
1 
1 
1 
1 
1 
1 
1 
1 
1 
1 
1 
1 
1 
1 
1 
1 
1 
1 
1 
1 
1 
1 
1 
1 
1 
1 
1 6:1 
1 
1 
1 
1 
1 
1 
1 
1 
1 7:1 17:1 
1 
1 
1 
1 
1 
1 
1 
1 
1 
1 
1 
1 
1 
1 
1 
1 
1 
1 
1 
1 
1 
1 
1 
1 
1 
1 
1 
1 
1 
1 
1 
1 
1 
1 
1 
1 
1 
1 
1 
1 
1 
1 
1 
1 
1 
1 
1 
1 
1 
1 
1 
1 
1 
1 
1 
1 
1 
1 
1 
1 
1 
1 
1 
1 
1 
1 
1 
1 
1 
1 
1 
1 
1 
1 
1 
1 
1 
1 
1 
1 
1 
1 
1 
1 
1 
1 
1 
1 
1 
1 
1 
1 
1 
1 
1 
1 
1 
1 
1 
1 
1 
1 
1 
1 
1 
1 
1 
1 7:1 17:1 
1 
1 
1 
1 
1 
1 
1 
1 
1 
1 
1 
1 
1 
1 
1 
1 
1 
1 
1 
1 
1 
1 
1 
1 
1 
1 
1 
1 
1 
1 
1 
1 
1 
1 
1 
1 
1 
1 
1 
1 
1 
1 
1 
1 
1 
1 
1 
1 
1 
1 
1 
1 
1 
1 
1 
1 
1 
1 
1 
1 
1 
1 
1 
1 
1 
1 
1 
1 
1 
1 
1 
1 
1 
1 
1 
1 
1 
1 
1 
1 
1 
1 
1 
1 
1 
1 
1 
1 
1 
1 
1 
1 
1 
1 
1 
1 
1 
1 
1 
1 
1 
1 
1 
1 
1 
1 
1 
1 
1 
1 
1 
1 
1 
1 
1 
1 
1 
1 
1 
1 
1 
1 
1 
1 
1 
1 
1 
1 
1 
1 
1 
1 
1 
1 
1 
1 
1 
1 
1 
1 
1 
1 
1 
1 
1 
1 
1 
1 
1 
1 
1 
1 
1 
1 
1 
1 
1 
1 
1 
1 
1 
1 
1 
1 
1 
1 
1 
1 
1 
1 
1 
1 
1 
1 
1 
1 
1 
1 
1 
1 
1 
1 
1 
1 
1 
1 
1 
1 
1 
1 
1 
1 
1 
1 
1 
1 
1 
1 
1 
1 
1 
1 
1 
1 
1 
1 
1 
1 
1 
1 
1 
1 
1 
1 
1 
1 
1 
1 
1 
1 
1 
1 
1 
1 
1 
1 
1 
1 
1 
1 
1 
1 
1 
1 
1 
1 
1 
1 
1 
1 
1 
1 
1 
1 
1 
1 
1 
1 
1 
1 
1 
1 
1 
1 
1 
1 
1 
1 
1 
1 
1 
1 
1 
1 
1 
1 
1 
1 
1 
1 
1 
1 
1 
1 
1 
1 
1 
1 
1 
1 
1 
1 
1 
1 
1 
1 
1 
1 
1 
1 
1 
1 
1 
1 
1 
1 
1 
1 
1 
1 
1 
1 
1 
1 
1 
1 
1 
1 
1 
1 
1 
1 
1 
1 
1 
1 
1 
1 
1 
1 
1 
1 
1 
1 
1 
1 
1 
1 
1 
1 
1 
1 
1 
1 
1 
1 
1 
1 
1 
1 
1 
1 
1 
1 
1 
1 
1 
1 
1 
1 
1 
1 
1 
1 
1 
1 
1 
1 
1 
1 
1 
1 
1 
1 
1 
1 
1 
1 
1 
1 
1 
1 
1 
1 
1 
1 
1 
1 
1 
1 7:1 17:1 
1 
1 
1 
1 
1 
1 
1 
1 
1 
1 
1 
1 
1 
1 7:1 17:1 
1 
1 
1 
1 
1 
1 
1 
1 
1 
1 
1 
1 
1 
1 
1 
1 
1 
1 
1 
1 
1 
1 
1 
1 
1 
1 
1 
1 
1 
1 
1 
1 
1 
1 
1 
1 
1 
1 
1 
1 
1 
1 
1 
1 
1 
1 
1 
1 
1 
1 
1 
1 
1 
1 
1 
1 
1 
1 
1 
1 
1 
1 
1 
1 
1 
1 
1 
1 
1 
1 
1 
1 
1 
1 
1 
1 
1 
1 
1 
1 
1 
1 
1 
1 
1 
1 
1 
1 
1 
1 
1 
1 
1 
1 
1 
1 
1 
1 
1 
1 
1 
1 
1 
1 
1 
1 
1 
1 
1 
1 
1 
1 
1 
1 
1 
1 
1 
1 
1 
1 
1 
1 
1 
1 
1 
1 
1 
1 
1 
1 
1 
1 
1 
1 
1 
1 
1 
1 
1 
1 
1 
1 
1 
1 
1 
1 
1 
1 
1 
1 
1 
1 
1 
-1 
-1 
-1 
-1 
-1 
-1 
-1 
-1 
-1 
-1 
-1 
-1 
-1 
-1 
-1 7:1 17:1 
-1 
-1 
-1 
-1 
-1 
-1 
-1 
-1 
-1 
-1 
-1 
-1 3:1 
-1 
-1 
-1 
-1 
-1 
-1 
-1 
-1 
-1 
-1 
-1 
-1 
-1 
-1 
-1 
-1 
-1 
-1 
-1 
-1 
-1 
-1 
-1 
-1 
-0.87777777777777777 2:1 
-1 
-1 
-1 
-1 
-1 
-1 
-1 
-1 
-1 
-1 
-1 
-1 
-1 
-1 
-1 
-1 
-1 
-1 
-1 
-1 
-1 
-1 
-1 
-1 
-1 
-1 
-1 
-1 
-1 
-1 
-1 
-1 
-1 
-1 
-1 
-1 
-1 
-1 
-1 
-1 
-1 
-1 
-1 
-1 
-1 
-1 
-1 
-1 
-1 
-1 
-1 
-1 
-1 
-1 
-1 
-1 
-1 
-1 
-1 
-1 
-1 
-1 
-1 
-1 
-1 
-1 
-1 
-1 
-1 
-1 
-1 
-1 
-1 
-1 
-1 
-1 
-1 
-1 
-1 
-1 
-1 
-1 
-1 
-1 7:1 17:1 
-1 
-1 
-1 
-1 
-1 
-1 
-1 
-1 
-1 
-1 
-1 
-1 
-1 
-1 
-1 
-1 
-1 
-1 
-1 
-1 
-1 
-1 
-1 
-1 
-1 
-1 
-1 
-1 
-1 
-1 
-1 
-1 
-1 
-1 
-1 
-1 
-1 
-1 
-1 
-1 
-1 
-1 
-1 2:1 
-1 
-1 
-1 
-1 
-1 
-1 
-1 
-1 
-1 
-1 
-1 
-1 
-1 4:1 6:1 
-1 4:1 6:1 
-1 4:1 6:1 
-1 
-1 4:1 6:1 
-1 
-1 
-1 
-1 
-1 4:1 6:1 
-1 
-1 
-1 4:1 6:1 
-1 
-1 
-1 
-1 
-1 
-1 
-1 
-1 
-1 
-1 
-1 4:1 6:1 
-1 
-1 
-1 
-1 
-1 
-1 
-1 
-1 2:1 
-1 
-1 
-1 
-1 4:1 6:1 
-1 
-1 
-1 
-1 
-1 
-1 
-1 
-1 
-1 
-1 
-1 
-1 
-1 
-1 
-1 
-1 
-1 
-1 
-1 
-1 
-1 
-1 
-1 
-1 
-1 
-1 4:1 6:1 
-1 
-1 
-1 
-1 
-1 
-1 
-1 
-1 
-1 
-1 
-1 
-1 4:1 6:1 
-1 
-1 
-1 
-1 
-1 
-1 
-1 
-1 
-1 
-1 
-1 
-1 
-1 
-1 
-1 
-1 
-1 
-1 
-1 
-1 
-1 
-1 4:1 6:1 
-1 4:1 6:1 
-1 
-1 
-1 
-1 
-1 
-1 
-1 
-1 
-1 
-1 
-1 
-1 
-1 
-1 
-1 4:1 6:1 
-1 
-1 4:1 6:1 
-1 
-1 
-1 
-1 
-1 
-1 
-1 
-1 
-1 
-1 
-1 
-1 
-1 
-1 
-1 
-1 
-1 
-1 
-1 
-1 
-1 4:1 6:1 
-1 
-1 
-1 
-1 
-1 
-1 
-1 
-1 
-1 4:1 6:1 
-1 
-1 
-1 
-1 
-1 
-1 
-1 
-1 
-1 
-1 
-1 
-1 4:1 6:1 
-1 4:1 6:1 
-1 
-1 
-1 
-1 
-1 
-1 
-1 
-1 
-1 
-1 
-1 4:1 6:1 
-1 
-1 
-1 
-1 
-1 4:1 6:1 
-1 
-1 
-1 
-1 7:1 17:1 
-1 
-1 
-1 
-1 
-1 
-1 
-1 
-0.36203703703703738 6:1 
-1 
-1 
-1 
-1 
-1 4:1 6:1 
-1 
-1 
-1 7:1 17:1 
-1 
-1 4:1 6:1 
-1 
-1 
-1 4:1 6:1 
-1 
-1 
-1 
-1 4:1 6:1 
-1 
-1 
-1 2:1 
-1 
-1 
-1 
-1 
-1 
-1 
-1 
-1 
-1 4:1 6:1 
-1 
-1 
-1 
-1 
-1 
-1 
-1 
-1 
-1 
-1 
-1 
-1 
-1 
-1 
-1 
-1 
-1 
-1 
-1 
-1 
-1 
-1 
-1 
-1 
-1 
-1 
-1 
-1 7:1 17:1 
-1 
-1 
-1 
-1 
-1 
-1 
-1 
-1 
-1 4:1 6:1 
-1 
-1 6:1 
-1 
-1 
-1 
-1 
-1 
-1 
-1 
-1 
-1 
-1 
-1 
-1 
-1 
-1 
-1 
-1 4:1 6:1 
-1 
-1 4:1 6:1 
-1 
-1 
-1 
-1 
-1 
-1 
-1 
-1 
-1 
-1 
-1 
-1 
-1 
-1 
-1 
-1 
-1 
-1 7:1 17:1 
-1 
-1 
-1 
-1 
-1 
-1 
-1 
-1 
-1 
-1 
-1 
-1 
-1 
-1 
-1 4:1 6:1 
-1 
-1 
-1 
-1 
-1 
-1 
-1 
-1 
-1 
-1 
-1 
-1 
-1 3:1 
-1 
-1 
-1 
-1 
-1 
-1 
-1 
-1 
-1 
-1 
-1 
-1 
-1 
-1 
-1 
-1 
-1 
-1 
-1 
-1 
-1 
-1 
-1 
-1 
-1 
-1 
-1 
-1 
-1 
-1 
-1 
-1 
-1 7:1 17:1 
-1 
-1 
-1 
-1 4:1 6:1 
-1 
-1 
-1 
-1 
-1 7:1 17:1 
-1 
-1 
-1 
-1 4:1 6:1 
-1 
-1 
-1 4:1 6:1 
-1 
-1 
-1 
-1 
-1 
-1 
-1 
-1 
-1 
-1 
-1 4:1 6:1 
-1 
-1 
-1 
-1 
-1 
-1 4:1 6:1 
-1 
-1 
-1 4:1 6:1 
-1 
-1 
-1 
-1 
-1 4:1 6:1 
-1 
-1 
-1 
-1 
-1 
-1 
-1 
-1 
-1 
-1 
-1 
-1 
-1 
-1 
-1 
-1 
-1 
-1 
-1 
-1 
-1 
-1 7:1 17:1 
-1 
-1 
-1 
-1 
-1 
-1 
-1 
-1 
-1 
-1 
-1 
-1 3:1 
-1 
-1 
-1 
-1 
-1 
-1 
-1 2:1 
-1 
-1 
-1 
-1 
-1 
-1 
-1 
-1 
-1 
-1 
-1 
-1 4:1 6:1 
-1 
-1 
-1 
-1 
-1 
-1 
-1 
-1 
-1 7:1 17:1 
-1 
-1 
-1 
-1 
-1 
-1 
-1 
-1 
-1 
-1 
-1 
-1 
-1 
-1 
-1 
-1 
-1 
-1 
-1 
-1 
-1 
-1 
-1 
-1 
-1 
-1 
-1 
-1 
-1 
-1 
-1 4:1 6:1 
-1 3:1 
-1 
-1 
-1 
-1 
-1 4:1 6:1 
-1 
-1 
-1 
-1 
-1 
-1 
-1 
-1 4:1 6:1 
-1 
-1 
-1 
-1 6:1 
-1 4:1 6:1 
-1 
-1 
-1 
-1 
-1 
-1 
-1 4:1 6:1 
-1 
-1 
-1 
-1 
-1 
-1 
-1 
-1 
-1 
-1 
-1 4:1 6:1 
-1 
-1 
-1 
-1 4:1 6:1 
-1 
-1 
-1 
-1 
-1 4:1 6:1 
-1 
-1 
-1 7:1 17:1 
-1 
-1 
-1 
-1 
-1 
-1 
-1 
-1 
-1 
-1 
-1 
-1 
-1 
-1 
-1 
-1 
-1 
-1 
-1 7:1 17:1 
-1 7:1 17:1 
-1 
-1 
-1 
-1 4:1 7:1 17:1 
-1 4:1 6:1 
-1 
-1 
-1 
-1 
-1 
-1 
-1 
-1 4:1 6:1 
-1 
-1 
-1 
-1 
-1 
-1 4:1 6:1 
-1 
-1 
-1 4:1 6:1 
-1 6:1 
-1 
-1 
-1 
-1 
-1 
-1 4:1 6:1 
-1 
-1 4:1 6:1 
-1 
-1 
-1 4:1 6:1 
-1 
-1 
-1 
-1 
-1 
-1 
-1 
-1 4:1 6:1 
-1 
-1 
-1 
-1 
-1 
-1 
-1 
-1 
-1 
-1 4:1 6:1 
-1 
-1 
-1 
-1 
-1 
-1 
-1 7:1 17:1 
-1 
-1 4:1 6:1 
-1 
-1 
-1 
-1 
-1 
-1 
-1 
-1 
-1 
-1 7:1 17:1 
-1 2:1 
-1 
-1 
-1 
-1 
-1 
-1 
-1 
-1 
-1 
-1 
-1 
-1 
-1 
-1 
-1 
-1 7:1 17:1 
-1 
-1 
-1 
-1 4:1 6:1 
-1 
-1 
-1 
-1 
-1 
-1 
-1 
-1 4:1 6:1 
-1 
-1 4:1 6:1 
-1 
-1 
-1 
-1 4:1 6:1 
-1 
-1 
-1 
-1 
-1 
-1 6:1 
-1 
-1 
-1 
-1 
-1 6:1 
-1 
-1 
-1 
-1 
-1 
-1 
-1 4:1 6:1 
-1 
-1 
-1 
-1 4:1 6:1 
-1 
-1 
-1 
-1 
-1 
-1 
-1 
-1 
-1 
-1 
-1 4:1 6:1 
-1 
-1 
-1 4:1 7:1 17:1 
-1 2:1 
-1 
-1 
-1 
-1 
-1 
-1 
-1 
-1 
-1 
-1 
-1 
-1 
-1 
-1 3:1 
-1 
-1 4:1 6:1 
-1 
-1 
-1 
-1 
-1 7:1 17:1 
-1 
-1 
-1 
-1 
-1 
-1 
-1 
-1 
-1 
-1 
-1 
-1 
-1 
-1 
-1 
-1 
-1 
-1 
-1 
-1 4:1 6:1 
-1 4:1 6:1 
-1 
-1 
-1 
-1 
-1 
-1 
-1 4:1 6:1 
-1 
-1 4:1 6:1 
-1 
-1 
-1 
-1 
-1 
-1 
-1 4:1 6:1 
-1 4:1 6:1 
-1 
-1 
-1 
-1 
-1 
-1 
-1 
-1 
-1 
-1 
-1 
-1 
-1 
-1 
-1 
-1 
-1 4:1 6:1 
-1 
-1 
-1 
-1 
-1 
-1 7:1 17:1 
-1 
-1 
-1 
-1 
-1 
-1 
-1 
-1 
-1 
-1 6:1 
-1 
-1 
-1 
-1 
-1 
-1 
-1 
-1 
-1 
-1 
-1 
-1 4:1 7:1 17:1 
-1 
-1 7:1 17:1 
-1 
-1 7:1 17:1 
-1 4:1 6:1 
-1 
-1 
-1 
-1 
-1 
-1 
-1 
-1 
-1 
-1 
-1 
-1 
-1 
-1 
-1 
-1 
-1 
-1 
-1 
-1 7:1 17:1 
-1 
-1 4:1 6:1 
-1 4:1 6:1 
-1 
-1 4:1 6:1 
-1 
-1 
-1 4:1 6:1 
-1 
-1 
-1 
-1 
-1 
-1 
-1 
-1 
-1 
-1 
-1 
-1 3:1 
-1 
-1 
-1 
-1 4:1 6:1 
-1 
-1 
-1 
-1 
-1 3:1 
-1 4:1 6:1 
-1 
-1 
-1 4:1 6:1 
-1 4:1 6:1 
-1 
-1 
-1 
-1 
-1 6:1 
-1 
-1 
-1 
-1 
-1 
-1 
-1 
-1 
-1 
-1 
-1 
-1 
-1 
-1 
-1 
-1 
-1 
-1 
-1 
-1 
-1 
-1 
-1 
-1 
-1 
-1 
-1 4:1 6:1 
-1 
-1 
-1 
-1 
-1 
-1 4:1 6:1 
-1 
-1 
-1 
-1 
-1 
-1 4:1 6:1 
-1 
-1 4:1 6:1 
-1 
-1 
-1 
-1 
-1 
-0.0040509259259260688 4:1 5:1 7:1 17:1 
-1 
-1 4:1 6:1 
-1 
-1 
-1 
-1 
-1 
-1 
-1 
-1 
-1 
-1 
-1 
-1 
-1 3:1 
-1 
-1 
-1 
-1 
-1 7:1 17:1 
-1 
-1 
-1 
-1 
-1 
-1 
-1 
-1 
-1 
-1 
-1 
-1 7:1 17:1 
-1 
-1 
-1 
-1 
-1 
-1 
-1 
-1 
-1 
-1 
-1 
-1 
-1 
-1 
-1 
-1 
-1 
-1 
-1 4:1 6:1 
-1 6:1 
-1 4:1 6:1 
-1 
-1 
-1 
-1 
-1 
-1 
-1 
-1 
-1 
-1 
-1 
-1 
-1 
-1 4:1 6:1 
-1 
-1 
-1 
-1 
-1 
-1 
-1 
-1 
-1 
-1 
-1 
-1 
-1 
-1 
-1 
-1 
-1 
-1 
-1 
-1 
-1 4:1 7:1 17:1 
-1 4:1 6:1 
-1 7:1 17:1 
-1 
-1 
-1 
-1 4:1 6:1 
-1 
-1 
-1 
-1 
-1 
-1 
-1 
-1 
-1 
-1 
-1 4:1 6:1 
-1 
-1 
-1 
-1 
-1 
-1 
-1 
-1 4:1 6:1 
-1 
-1 
-1 
-1 
-1 
-1 
-1 
-1 
-1 
-1 
-1 
-1 
-1 
-1 
-1 4:1 6:1 
-1 
-1 
-1 
-1 
-1 
-1 2:1 
-1 
-1 
-1 
-1 
-1 
-1 
-1 
-1 
-1 
-0.33333333333333337 8:1 
-1 
-1 
-1 8:1 
-1 4:1 6:1 
-1 
-1 
-1 8:1 
-1 
-1 8:1 
-1 
-1 8:1 
-1 
-1 
-1 
-1 8:1 
-1 
-1 
-1 
-1 
-1 
-1 
-1 
-1 3:1 
-1 4:1 6:1 
-1 
-1 8:1 
-1 
-1 
-1 
-1 
-1 
-1 
-1 
-1 
-1 
-1 
-1 
-1 
-1 
-1 
-1 8:1 
-1 
-1 
-1 
-1 
-1 8:1 
-1 
-1 
-1 
-1 
-1 
-1 
-1 
-1 
-1 8:1 
-1 
-1 
-1 
-1 4:1 6:1 
-1 
-1 8:1 
-1 8:1 
-1 
-1 4:1 6:1 
-1 
-1 
-1 7:1 17:1 
-1 
-1 
-1 
-1 
-1 
-1 
-1 8:1 
-1 
-1 8:1 
-1 
-1 
-1 
-1 8:1 
-1 
-0.66666666666666641 7:1 8:1 17:1 
-1 
-1 
-1 
-1 
-1 8:1 
-1 7:1 8:1 17:1 
-1 
-1 
-1 
-1 
-1 
-1 
-1 
-1 
-1 
-1 
-1 
-0.83456790123456792 5:1 
-1 
-1 
-1 6:1 
-1 6:1 
-1 8:1 
-1 
-1 
-1 
-1 
-1 
-1 
-1 
-1 
-1 
-1 
-1 
-1 
-1 
-1 
-1 
-1 
-1 
-1 
-1 
-1 
-1 
-1 
-1 
-1 5:1 
-1 
-1 7:1 8:1 17:1 
-1 8:1 
-1 
-1 
-1 
-1 
-1 
-1 
-1 4:1 6:1 
-1 4:1 6:1 
-1 4:1 6:1 
-1 8:1 
-1 
-1 
-1 
-1 
-1 
-1 2:1 
-1 
-1 
-1 7:1 8:1 17:1 
-1 4:1 6:1 
-1 
-1 8:1 
-1 
-1 4:1 6:1 
-1 
-1 
-1 
-1 
-1 4:1 6:1 
-1 
-1 4:1 6:1 
-1 
-1 8:1 
-1 
-1 
-1 4:1 6:1 
-1 
-1 
-1 4:1 6:1 
-1 
-1 
-1 
-1 
-1 8:1 
-1 4:1 6:1 
-1 7:1 8:1 17:1 
-1 
-1 
-1 4:1 6:1 
-1 
-1 
-1 
-1 8:1 
-1 4:1 6:1 
-1 7:1 8:1 17:1 
-1 
-1 8:1 
-1 
-1 
-1 
-1 
-1 4:1 6:1 
-1 
-1 4:1 6:1 
-1 
-1 
-1 
-1 
-1 5:1 
-1 
-1 
-1 
-1 
-1 
-1 
-1 
-1 
-1 
-1 4:1 6:1 
-1 
-0.99922839506172834 2:1 
-1 
-1 
-1 5:1 
-1 5:1 
-1 4:1 6:1 
-1 
-1 8:1 
-1 
-1 
-1 
-1 
-1 
-1 
-1 
-1 
-1 
-1 4:1 6:1 
-1 
-1 
-1 
-1 
-1 
-1 
-1 
-1 
-1 
-1 
-1 
-1 
-1 
-1 
-1 
-1 
-1 8:1 
-1 
-1 
-1 4:1 6:1 
-1 
-1 
-1 
-1 
-1 8:1 
-1 6:1 
-1 6:1 
-1 5:1 
-1 
-1 
-1 
-1 
-1 
-1 
-1 
-1 
-1 
-1 
-1 
-1 
-1 4:1 6:1 
-1 
-1 
-1 
-1 7:1 17:1 
-1 
-1 
-1 
-1 4:1 6:1 
-1 
-1 
-1 8:1 
-1 
-1 
-1 
-1 
-1 
-1 6:1 
-1 
-1 
-1 
-1 8:1 
-1 
-1 
-1 
-1 4:1 6:1 
-1 3:1 
-1 
-1 
-1 
-1 
-1 
-0.12222222222222218 2:1 7:1 17:1 
-1 7:1 8:1 17:1 
-1 
-1 
-1 
-1 
-1 
-1 4:1 6:1 
-1 
-1 8:1 
-1 6:1 
-1 
-0.64166666666666627 6:1 7:1 17:1 
-1 
-1 4:1 6:1 
-1 
-1 7:1 8:1 17:1 
-1 
-1 8:1 
-1 
-1 
-1 
-1 
-1 
-1 
-1 7:1 8:1 17:1 
-1 
-1 
-1 
-1 8:1 
-1 
-1 4:1 6:1 
-1 
-1 
-1 8:1 
-1 
-1 
-1 
-1 8:1 
-1 4:1 6:1 
-1 
-1 
-1 
-1 
-1 8:1 
-1 
-1 
-1 
-1 7:1 8:1 17:1 
-1 
-1 4:1 6:1 
-1 
-1 
-1 
-1 
-1 8:1 
-1 7:1 8:1 17:1 
-1 
-1 8:1 
-1 
-1 4:1 6:1 
-1 
-1 
-1 8:1 
-1 4:1 6:1 
-1 
-1 4:1 6:1 
-1 
-1 
-1 8:1 
-1 
-1 
-1 8:1 
-1 
-1 
-1 5:1 
-1 
-1 5:1 
-1 
-1 8:1 
-1 
-1 
-1 
-1 
-1 4:1 6:1 
-1 4:1 6:1 
-1 
-1 
-1 
-1 8:1 
-1 
-1 4:1 6:1 
-1 
-1 
-1 4:1 6:1 
-1 
-1 4:1 6:1 
-1 6:1 
-1 
-1 
-1 
-1 
-0.99594907407407396 4:1 6:1 
-1 
-1 
-1 
-1 
-1 
-1 
-1 
-1 
-1 
-1 7:1 8:1 17:1 
-1 
-1 
-1 
-1 
-1 
-0.16790123456790118 5:1 7:1 17:1 
-0.99305555555555547 5:1 
