svm_type c_svc
kernel_type rbf
gamma 0.20000000000000001
nr_class 2
total_sv 2021
rho -0.48513394010589256
label 3 0
nr_sv 1009 1012
SV
1 
1 
1 
1 
1 1:1 
1 1:1 
1 
1 4:1 
1 4:1 
1 
1 1:1 
1 1:1 
1 
1 
1 
1 2:1 
1 1:1 
1 1:1 
1 1:1 
1 1:1 
1 
1 
1 
1 
1 4:1 
1 4:1 
1 
1 
1 1:1 
1 1:1 
1 1:1 
1 1:1 
1 
1 1:1 
1 1:1 
1 1:1 
1 
1 
1 2:1 
1 1:1 
1 2:1 
1 1:1 
1 1:1 
1 3:1 
1 1:1 
1 3:1 
1 1:1 
1 1:1 
1 1:1 
1 3:1 
1 3:1 
0.94820309790121515 1:1 2:1 
1 1:1 
1 4:1 
1 4:1 
1 2:1 
1 4:1 
1 2:1 
1 1:1 
1 4:1 
1 1:1 
1 
1 1:1 
1 1:1 
1 1:1 
1 
1 1:1 2:1 
1 1:1 
1 2:1 
1 1:1 
1 2:1 
1 2:1 
1 2:1 
1 1:1 2:1 
1 1:1 2:1 
1 1:1 2:1 
1 1:1 
1 1:1 
1 1:1 
1 1:1 
1 1:1 
1 1:1 
1 1:1 
1 1:1 
1 
1 
1 
1 
1 
1 1:1 
1 1:1 
1 1:1 
1 1:1 
1 2:1 
1 1:1 
1 1:1 
1 
1 
1 
1 
1 
1 
1 4:1 
1 
1 1:1 
1 1:1 
1 1:1 
1 1:1 
1 1:1 
1 4:1 
1 1:1 
1 2:1 
1 2:1 
1 
1 1:1 
1 1:1 
1 
1 1:1 
1 1:1 
1 1:1 
1 1:1 
1 1:1 
1 1:1 
1 1:1 
1 1:1 
1 1:1 
1 1:1 
1 1:1 
1 1:1 
1 1:1 
1 1:1 
1 1:1 
1 
1 1:1 
1 1:1 
1 2:1 
1 1:1 
1 1:1 
1 1:1 
1 
1 
1 1:1 
1 1:1 
1 1:1 
1 1:1 
1 1:1 
1 1:1 
1 1:1 
1 1:1 
1 
1 
1 1:1 
1 
1 1:1 
1 1:1 
1 1:1 
1 2:1 
1 1:1 
1 2:1 
1 1:1 
1 2:1 
1 2:1 
1 1:1 
1 1:1 
1 1:1 
1 1:1 
1 1:1 
1 1:1 2:1 
1 1:1 2:1 
1 1:1 
1 
1 1:1 
1 1:1 2:1 
1 1:1 
1 1:1 2:1 
1 1:1 
1 
1 1:1 
1 
1 2:1 
1 2:1 
1 1:1 
1 
1 
1 3:1 
1 3:1 
1 
1 1:1 
1 
1 1:1 
1 
1 
1 
1 1:1 
1 1:1 
1 2:1 
1 1:1 
1 
1 
1 1:1 
1 3:1 
1 1:1 
1 3:1 
1 
1 1:1 
1 
1 4:1 
1 1:1 
1 1:1 
1 4:1 
1 1:1 
1 1:1 
1 1:1 
1 1:1 
1 1:1 2:1 
1 1:1 2:1 
1 
1 
1 
1 
1 
1 2:1 
1 3:1 
1 2:1 
1 3:1 
1 
1 1:1 2:1 
1 
1 1:1 
1 1:1 
1 1:1 
1 1:1 
1 
1 1:1 
1 
1 
1 1:1 
1 
1 1:1 
1 
1 1:1 
1 3:1 
1 1:1 
1 
1 
1 1:1 
1 1:1 
0.95032608175284305 2:1 4:1 
1 1:1 
1 4:1 
1 1:1 
1 4:1 
1 1:1 
1 1:1 
1 1:1 
1 1:1 
1 1:1 
1 1:1 
1 2:1 
1 
1 2:1 
1 
1 1:1 
1 1:1 
1 1:1 
1 1:1 
1 1:1 
1 1:1 
1 2:1 
1 2:1 
1 1:1 
1 1:1 
1 
1 
1 2:1 
1 1:1 
1 2:1 
1 2:1 4:1 
1 1:1 
1 1:1 
1 1:1 
0.94848909264314774 2:1 5:1 
1 2:1 5:1 
1 2:1 5:1 
1 2:1 5:1 
1 2:1 5:1 
1 2:1 5:1 
1 1:1 
1 1:1 
1 
1 1:1 
1 1:1 
1 
1 
1 2:1 4:1 
1 
1 2:1 4:1 
1 
1 
1 1:1 
1 1:1 
1 
1 2:1 5:1 
1 1:1 
1 2:1 5:1 
1 1:1 
1 1:1 2:1 
1 1:1 
1 1:1 2:1 
1 1:1 
1 1:1 
1 2:1 
1 1:1 
1 2:1 
1 1:1 
1 1:1 
1 1:1 
1 1:1 
1 2:1 
1 2:1 5:1 
1 2:1 
1 2:1 5:1 
1 1:1 
1 2:1 
1 2:1 
1 1:1 
1 1:1 
1 
1 1:1 
1 
1 1:1 
1 1:1 
1 1:1 
1 1:1 
1 1:1 
1 1:1 
1 1:1 
1 2:1 4:1 
1 2:1 4:1 
1 1:1 
1 1:1 
1 2:1 5:1 
1 2:1 
1 2:1 5:1 
1 2:1 
1 2:1 5:1 
1 2:1 5:1 
1 1:1 2:1 
1 1:1 2:1 
1 1:1 
1 1:1 
1 1:1 
1 2:1 
1 2:1 5:1 
1 3:1 
1 3:1 
1 2:1 
1 2:1 
1 1:1 
1 
1 2:1 5:1 
1 2:1 
1 
1 2:1 
1 2:1 5:1 
1 2:1 5:1 
1 1:1 
1 2:1 5:1 
1 2:1 5:1 
1 1:1 
1 
1 1:1 
1 
1 
1 
1 1:1 
1 
1 2:1 5:1 
1 1:1 
1 2:1 5:1 
1 
1 2:1 5:1 
1 1:1 
1 2:1 
1 
1 1:1 
1 2:1 
1 1:1 
1 2:1 4:1 
1 1:1 
1 2:1 4:1 
1 1:1 
1 3:1 
1 2:1 5:1 
1 3:1 
1 2:1 5:1 
1 1:1 
1 2:1 
1 1:1 
1 1:1 
1 2:1 5:1 
1 2:1 4:1 
1 1:1 2:1 
1 2:1 5:1 
1 1:1 
1 1:1 2:1 
1 2:1 4:1 
1 2:1 5:1 
1 2:1 5:1 
1 2:1 5:1 
1 
1 2:1 
1 
1 2:1 
1 2:1 5:1 
1 
1 2:1 5:1 
1 1:1 
1 1:1 
1 1:1 
1 1:1 
1 2:1 4:1 
1 2:1 4:1 
1 2:1 5:1 
1 2:1 5:1 
1 2:1 4:1 
1 4:1 
1 2:1 4:1 
1 
1 4:1 
1 
1 1:1 
1 2:1 4:1 
1 1:1 
1 2:1 5:1 
1 2:1 4:1 
1 2:1 5:1 
1 2:1 4:1 
1 1:1 
1 1:1 
1 2:1 4:1 
1 1:1 
1 2:1 5:1 
1 2:1 5:1 
1 1:1 
1 2:1 5:1 
1 2:1 5:1 
1 1:1 
1 
1 
1 2:1 4:1 
1 2:1 4:1 
1 2:1 5:1 
1 1:1 
1 1:1 
1 2:1 5:1 
1 1:1 
1 2:1 5:1 
1 
1 2:1 
1 2:1 
1 2:1 
1 
1 2:1 
1 1:1 
1 2:1 5:1 
1 1:1 
1 2:1 5:1 
1 1:1 
1 1:1 
1 2:1 5:1 
1 2:1 5:1 
1 
1 
1 1:1 
1 2:1 5:1 
1 1:1 
1 1:1 
1 2:1 5:1 
1 2:1 5:1 
1 2:1 
1 1:1 
1 1:1 
1 2:1 5:1 
1 2:1 5:1 
1 1:1 
1 1:1 
1 1:1 
1 
1 2:1 5:1 
1 
1 1:1 
1 2:1 5:1 
1 1:1 
1 2:1 5:1 
1 1:1 
1 2:1 5:1 
1 2:1 
1 1:1 
1 
1 2:1 
1 3:1 
1 
1 2:1 
1 1:1 
1 1:1 
1 2:1 5:1 
1 2:1 5:1 
1 2:1 
1 1:1 
1 2:1 4:1 
1 2:1 5:1 
1 1:1 
1 2:1 5:1 
0.99779804517882187 2:1 4:1 
1 1:1 
1 2:1 
1 1:1 
1 
1 
1 1:1 
1 1:1 
1 1:1 
1 1:1 
1 
1 1:1 
1 
1 
1 
1 
1 1:1 
1 
1 1:1 
1 
1 2:1 
1 
1 
1 
1 
1 2:1 
1 2:1 5:1 
1 2:1 
1 2:1 
1 1:1 
1 1:1 
1 4:1 
1 4:1 
1 1:1 
1 1:1 
1 1:1 
1 4:1 
1 4:1 
1 2:1 5:1 
1 2:1 5:1 
1 2:1 5:1 
1 2:1 5:1 
1 
1 
1 1:1 
1 
1 
1 
1 
1 3:1 
1 3:1 
1 2:1 5:1 
1 2:1 5:1 
1 2:1 5:1 
1 2:1 5:1 
1 3:1 
1 3:1 
1 4:1 
1 4:1 
1 4:1 
1 2:1 
1 4:1 
1 1:1 
1 3:1 
1 1:1 
1 2:1 
1 1:1 
1 1:1 
1 1:1 
1 1:1 
1 1:1 
1 1:1 
1 1:1 
1 1:1 
1 1:1 
1 1:1 
1 
1 
1 2:1 5:1 
1 2:1 5:1 
1 2:1 5:1 
1 1:1 
1 1:1 
1 4:1 
1 1:1 
1 2:1 5:1 
1 2:1 5:1 
1 2:1 
1 2:1 
1 1:1 
1 1:1 
1 1:1 
1 2:1 5:1 
1 1:1 
1 2:1 5:1 
1 1:1 
1 1:1 
1 1:1 
1 1:1 
1 1:1 
1 1:1 
1 1:1 
1 1:1 
1 1:1 
1 1:1 
1 2:1 5:1 
1 2:1 5:1 
1 1:1 
1 1:1 
1 1:1 
1 1:1 
1 1:1 
1 1:1 
1 2:1 5:1 
1 2:1 5:1 
1 1:1 
1 1:1 
1 1:1 
1 1:1 
1 3:1 
1 3:1 
1 1:1 
1 2:1 5:1 
1 
1 
1 2:1 
1 2:1 5:1 
1 
1 
1 1:1 
1 1:1 
1 3:1 
1 1:1 
1 
1 1:1 
1 
1 2:1 5:1 
1 4:1 
1 1:1 
1 1:1 
1 4:1 
1 1:1 
1 1:1 
1 1:1 
1 1:1 
1 3:1 
1 3:1 
1 2:1 5:1 
1 2:1 5:1 
1 2:1 5:1 
1 2:1 5:1 
1 
1 
1 1:1 
1 1:1 
1 1:1 
1 1:1 
1 
1 1:1 
1 1:1 
1 
1 
1 
1 2:1 5:1 
1 2:1 5:1 
1 2:1 5:1 
1 2:1 5:1 
1 1:1 
1 1:1 
1 4:1 
1 4:1 
1 1:1 
1 1:1 
1 1:1 
1 1:1 
1 2:1 5:1 
1 2:1 5:1 
1 2:1 
1 2:1 
1 2:1 5:1 
1 2:1 5:1 
1 2:1 5:1 
1 2:1 5:1 
1 2:1 5:1 
1 2:1 5:1 
1 
1 1:1 
1 1:1 
1 
1 
1 
1 1:1 
1 1:1 
1 1:1 
1 1:1 
1 1:1 
1 1:1 
1 1:1 
1 1:1 
1 1:1 
1 1:1 
1 1:1 
1 1:1 
1 1:1 
1 
1 
1 1:1 
1 1:1 
1 1:1 
1 1:1 
1 1:1 
1 2:1 5:1 
1 2:1 5:1 
1 2:1 5:1 
1 2:1 5:1 
1 1:1 
1 1:1 
1 3:1 
1 3:1 
1 2:1 
1 2:1 
1 2:1 5:1 
1 2:1 5:1 
1 2:1 5:1 
1 2:1 5:1 
1 2:1 5:1 
1 4:1 
1 
1 2:1 5:1 
1 3:1 
1 2:1 
1 2:1 
1 1:1 
1 1:1 
1 3:1 
1 2:1 5:1 
1 3:1 
1 2:1 5:1 
1 1:1 
1 2:1 5:1 
1 1:1 
1 2:1 5:1 
1 1:1 
1 1:1 
1 2:1 5:1 
1 2:1 5:1 
1 
1 2:1 
1 
1 2:1 
1 2:1 5:1 
1 
1 2:1 5:1 
1 2:1 5:1 
1 4:1 
1 
1 4:1 
1 
1 2:1 5:1 
1 2:1 5:1 
1 1:1 
1 1:1 
1 
1 
1 2:1 5:1 
1 2:1 5:1 
1 2:1 
1 2:1 
1 1:1 
1 2:1 5:1 
1 2:1 5:1 
1 1:1 
1 
1 
1 1:1 
1 1:1 
1 1:1 
1 2:1 5:1 
1 2:1 
1 1:1 
1 1:1 
1 2:1 5:1 
1 2:1 5:1 
1 3:1 
1 1:1 
1 2:1 5:1 
1 1:1 
1 2:1 5:1 
1 1:1 
1 1:1 
1 
1 
1 
1 1:1 
1 
1 2:1 
1 2:1 
1 2:1 
1 1:1 
1 2:1 
1 1:1 
1 4:1 
1 4:1 
1 
1 
1 4:1 
1 4:1 
1 4:1 
1 4:1 
0.58669778151402452 1:1 4:1 
1 4:1 
1 3:1 
1 1:1 4:1 
1 3:1 
1 1:1 4:1 
1 1:1 4:1 
1 3:1 
1 3:1 
1 1:1 4:1 
1 1:1 4:1 
1 1:1 4:1 
1 4:1 
1 1:1 4:1 
1 4:1 
1 1:1 4:1 
1 4:1 
1 1:1 4:1 
1 4:1 
1 4:1 
1 4:1 
1 4:1 
1 3:1 
1 3:1 
1 4:1 
1 1:1 4:1 
1 1:1 4:1 
1 3:1 
1 1:1 4:1 
1 1:1 4:1 
1 1:1 4:1 
1 3:1 
1 1:1 4:1 
1 4:1 
1 1:1 4:1 
1 4:1 
1 1:1 4:1 
1 4:1 
1 4:1 
1 1:1 4:1 
1 1:1 4:1 
1 4:1 
1 4:1 
1 1:1 4:1 
1 3:1 
1 1:1 4:1 
1 1:1 4:1 
1 1:1 4:1 
1 4:1 
1 1:1 4:1 
1 4:1 
1 4:1 
1 3:1 
1 4:1 
1 4:1 
1 1:1 4:1 
1 1:1 4:1 
1 4:1 
1 3:1 
1 1:1 4:1 
1 4:1 
1 1:1 4:1 
1 3:1 
1 3:1 
1 1:1 4:1 
1 1:1 4:1 
1 3:1 
1 1:1 4:1 
1 1:1 4:1 
1 1:1 4:1 
1 
1 1:1 4:1 
1 
1 1:1 4:1 
1 1:1 4:1 
1 1:1 4:1 
1 3:1 
1 3:1 
1 1:1 4:1 
1 1:1 4:1 
1 4:1 
1 3:1 
1 4:1 
1 1:1 4:1 
1 4:1 
1 1:1 4:1 
1 4:1 
1 1:1 4:1 
1 4:1 
1 3:1 
1 1:1 4:1 
1 4:1 
1 1:1 4:1 
1 3:1 
1 4:1 
1 1:1 4:1 
1 1:1 4:1 
1 
1 3:1 
1 
1 4:1 
1 1:1 4:1 
1 3:1 
1 1:1 4:1 
1 1:1 4:1 
1 1:1 4:1 
1 1:1 4:1 
1 
1 1:1 4:1 
1 4:1 
1 1:1 4:1 
1 1:1 4:1 
1 1:1 4:1 
1 1:1 4:1 
1 
1 
1 4:1 
1 4:1 
1 1:1 4:1 
1 4:1 
1 4:1 
1 1:1 4:1 
1 1:1 4:1 
1 1:1 4:1 
1 1:1 4:1 
1 1:1 4:1 
1 1:1 4:1 
1 4:1 
1 1:1 4:1 
1 3:1 
1 1:1 4:1 
1 4:1 
1 
1 3:1 
1 
1 4:1 
1 1:1 4:1 
1 1:1 4:1 
1 1:1 4:1 
1 1:1 4:1 
1 3:1 
1 4:1 
1 4:1 
1 4:1 
1 
1 4:1 
1 1:1 4:1 
1 1:1 4:1 
0.99704036639187454 1:1 4:1 
1 
1 
1 
1 
1 1:1 3:1 4:1 
1 
1 2:1 5:1 
1 2:1 5:1 
1 2:1 5:1 
1 2:1 5:1 
1 2:1 5:1 
1 2:1 5:1 
1 3:1 
1 2:1 5:1 
1 
1 
1 
1 
1 
1 
1 
1 
1 
1 
1 
1 
1 
1 
1 
1 
1 
1 2:1 5:1 
1 2:1 5:1 
0.99469012031591442 2:1 5:1 
1 
1 
1 
-1 1:1 4:1 
-1 1:1 4:1 
-1 2:1 5:1 
-1 1:1 4:1 
-1 2:1 5:1 
-1 2:1 5:1 
-1 2:1 5:1 
-1 2:1 5:1 
-1 2:1 5:1 
-1 2:1 5:1 
-1 2:1 5:1 
-1 2:1 5:1 
-1 2:1 5:1 
-1 1:1 4:1 
-1 2:1 5:1 
-1 2:1 5:1 
-1 2:1 5:1 
-1 2:1 5:1 
-1 2:1 5:1 
-1 2:1 5:1 
-1 2:1 5:1 
-1 2:1 5:1 
-1 2:1 5:1 
-1 2:1 5:1 
-1 1:1 4:1 
-1 2:1 5:1 
-1 2:1 5:1 
-1 2:1 5:1 
-1 2:1 5:1 
-1 1:1 4:1 
-1 1:1 4:1 
-1 2:1 5:1 
-1 2:1 5:1 
-1 2:1 5:1 
-1 1:1 4:1 
-1 2:1 5:1 
-1 2:1 5:1 
-1 2:1 5:1 
-1 1:1 4:1 
-1 2:1 5:1 
-1 2:1 5:1 
-1 2:1 5:1 
-1 1:1 4:1 
-1 1:1 4:1 
-1 1:1 4:1 
-1 2:1 5:1 
-1 2:1 5:1 
-1 2:1 5:1 
-1 2:1 5:1 
-1 2:1 5:1 
-1 2:1 5:1 
-1 2:1 5:1 
-1 2:1 5:1 
-1 2:1 5:1 
-1 2:1 5:1 
-1 2:1 5:1 
-1 1:1 4:1 
-1 2:1 5:1 
-1 2:1 5:1 
-1 1:1 4:1 
-1 2:1 5:1 
-1 1:1 4:1 
-1 1:1 4:1 
-1 2:1 5:1 
-1 2:1 5:1 
-1 2:1 5:1 
-1 2:1 5:1 
-1 2:1 5:1 
-1 2:1 5:1 
-1 2:1 5:1 
-1 1:1 4:1 
-1 2:1 5:1 
-1 2:1 5:1 
-1 1:1 4:1 
-0.4567149492291771 1:1 5:1 
-1 2:1 5:1 
-1 2:1 5:1 
-1 2:1 5:1 
-1 1:1 4:1 
-1 1:1 3:1 4:1 
-1 2:1 5:1 
-1 2:1 5:1 
-1 2:1 5:1 
-1 2:1 4:1 
-1 2:1 5:1 
-1 2:1 4:1 
-1 2:1 5:1 
-1 2:1 5:1 
-1 1:1 4:1 
-1 2:1 5:1 
-1 2:1 5:1 
-1 1:1 4:1 
-1 1:1 4:1 
-0.82825008600648797 1:1 
-1 1:1 
-1 1:1 
-1 1:1 
-1 1:1 
-1 1:1 
-1 1:1 
-1 1:1 
-1 1:1 
-1 1:1 
-1 1:1 
-1 1:1 
-1 1:1 
-1 1:1 
-1 1:1 
-1 1:1 
-1 1:1 
-1 1:1 4:1 
-1 2:1 5:1 
-1 2:1 5:1 
-1 1:1 
-1 2:1 4:1 
-1 1:1 
-1 1:1 
-1 1:1 
-1 1:1 
-1 2:1 5:1 
-1 2:1 5:1 
-1 1:1 
-1 1:1 
-1 1:1 
-1 1:1 
-1 1:1 
-1 2:1 5:1 
-1 2:1 5:1 
-1 1:1 4:1 
-1 1:1 
-1 1:1 
-1 1:1 
-1 1:1 4:1 
-1 2:1 5:1 
-1 1:1 
-1 2:1 5:1 
-1 1:1 
-1 1:1 
-1 1:1 
-1 1:1 
-1 1:1 
-1 1:1 
-1 1:1 
-1 1:1 
-1 1:1 4:1 
-1 2:1 5:1 
-1 1:1 4:1 
-1 1:1 
-1 1:1 
-1 1:1 
-1 1:1 
-1 1:1 
-1 1:1 
-1 1:1 
-1 1:1 4:1 
-1 1:1 
-1 1:1 
-1 1:1 
-1 1:1 4:1 
-1 1:1 
-1 1:1 
-1 1:1 
-1 1:1 
-1 1:1 4:1 
-1 1:1 
-1 1:1 
-1 1:1 
-1 1:1 
-1 1:1 
-1 1:1 
-1 1:1 
-1 1:1 
-1 1:1 
-1 1:1 
-1 1:1 
-1 1:1 
-1 1:1 4:1 
-1 1:1 
-1 1:1 
-1 1:1 
-1 1:1 
-1 1:1 
-1 1:1 4:1 
-1 1:1 
-1 2:1 5:1 
-1 1:1 
-1 1:1 
-1 1:1 
-1 1:1 4:1 
-1 1:1 
-1 1:1 
-1 2:1 5:1 
-1 1:1 
-1 2:1 5:1 
-1 1:1 
-1 1:1 
-1 1:1 
-1 1:1 
-1 1:1 
-1 2:1 5:1 
-1 1:1 
-1 1:1 
-1 1:1 
-1 1:1 
-1 1:1 4:1 
-1 1:1 
-1 1:1 
-1 1:1 
-1 1:1 
-1 1:1 3:1 4:1 
-1 1:1 4:1 
-1 1:1 
-1 1:1 4:1 
-1 1:1 
-1 1:1 
-1 1:1 
-1 2:1 5:1 
-1 1:1 
-1 1:1 
-1 1:1 
-1 1:1 
-1 1:1 
-1 2:1 5:1 
-1 1:1 
-1 1:1 
-1 2:1 5:1 
-1 1:1 
-1 1:1 
-1 1:1 
-1 1:1 
-1 1:1 
-1 1:1 
-1 1:1 
-1 1:1 
-1 1:1 
-1 1:1 
-1 1:1 
-1 1:1 
-1 1:1 
-1 2:1 5:1 
-1 2:1 5:1 
-1 1:1 
-1 1:1 
-1 1:1 
-1 1:1 
-1 1:1 
-1 1:1 
-1 1:1 
-1 2:1 5:1 
-1 1:1 4:1 
-1 1:1 
-1 1:1 
-1 1:1 
-1 1:1 
-1 2:1 5:1 
-1 1:1 
-1 2:1 5:1 
-1 1:1 
-1 2:1 5:1 
-1 1:1 4:1 
-1 1:1 
-1 1:1 
-1 2:1 5:1 
-1 1:1 
-1 1:1 
-1 1:1 
-1 1:1 
-1 1:1 
-1 1:1 
-1 2:1 5:1 
-1 1:1 
-1 1:1 
-1 1:1 
-1 2:1 5:1 
-1 1:1 
-1 1:1 
-1 1:1 
-1 1:1 
-1 1:1 
-1 1:1 
-1 1:1 
-1 2:1 5:1 
-1 1:1 
-1 1:1 
-1 1:1 
-1 1:1 
-1 1:1 
-1 1:1 
-1 1:1 
-1 1:1 
-1 1:1 
-1 2:1 5:1 
-1 1:1 
-1 1:1 
-1 2:1 5:1 
-1 1:1 
-1 1:1 
-1 1:1 
-1 1:1 
-1 1:1 
-1 1:1 4:1 
-1 1:1 
-1 1:1 
-1 1:1 
-1 2:1 5:1 
-1 1:1 
-1 1:1 
-1 1:1 
-1 1:1 
-1 1:1 
-1 1:1 
-1 1:1 
-1 1:1 
-1 1:1 
-1 1:1 
-1 1:1 
-1 1:1 
-1 2:1 5:1 
-1 1:1 
-1 1:1 
-1 1:1 
-1 1:1 
-1 2:1 5:1 
-1 2:1 5:1 
-1 1:1 
-1 1:1 
-1 1:1 
-1 1:1 
-1 1:1 
-1 1:1 
-1 1:1 
-1 1:1 
-1 1:1 
-1 1:1 
-1 1:1 
-1 2:1 5:1 
-1 1:1 
-1 1:1 
-1 1:1 
-1 2:1 5:1 
-1 1:1 
-1 1:1 
-1 1:1 
-1 1:1 
-1 1:1 
-1 1:1 4:1 
-1 2:1 5:1 
-1 1:1 
-1 1:1 
-1 1:1 
-1 1:1 
-1 1:1 
-1 1:1 
-1 1:1 
-1 1:1 4:1 
-1 1:1 
-1 1:1 
-1 1:1 
-1 1:1 
-1 1:1 
-1 1:1 
-1 1:1 
-1 1:1 
-1 1:1 
-1 1:1 
-1 1:1 
-1 1:1 
-1 1:1 
-1 1:1 
-1 2:1 5:1 
-1 1:1 
-1 1:1 
-1 1:1 
-1 1:1 
-1 1:1 
-1 1:1 
-1 1:1 
-1 1:1 
-1 1:1 3:1 4:1 
-1 1:1 
-1 1:1 
-1 1:1 
-1 1:1 
-1 1:1 
-1 1:1 
-1 1:1 
-1 1:1 
-1 2:1 5:1 
-1 2:1 5:1 
-1 1:1 
-1 1:1 4:1 
-1 1:1 
-1 2:1 5:1 
-1 1:1 
-1 1:1 
-1 1:1 
-1 1:1 
-1 1:1 
-1 1:1 
-1 1:1 
-1 1:1 
-1 1:1 
-1 1:1 
-1 1:1 
-1 1:1 
-1 1:1 
-1 1:1 4:1 
-1 1:1 
-1 1:1 
-1 1:1 
-1 2:1 4:1 
-1 1:1 
-1 1:1 
-1 1:1 
-1 1:1 
-1 1:1 
-1 1:1 
-1 2:1 5:1 
-1 2:1 5:1 
-1 1:1 
-1 2:1 5:1 
-1 1:1 
-1 1:1 
-1 1:1 
-1 1:1 
-1 1:1 
-1 1:1 
-1 1:1 
-1 1:1 
-1 1:1 
-1 1:1 
-1 1:1 
-1 1:1 
-1 1:1 
-1 1:1 
-1 1:1 
-1 1:1 
-1 1:1 
-1 1:1 
-1 1:1 
-1 2:1 5:1 
-1 1:1 
-1 1:1 
-1 1:1 
-1 1:1 
-1 1:1 4:1 
-1 1:1 
-1 1:1 
-1 1:1 
-1 1:1 
-1 1:1 4:1 
-1 2:1 5:1 
-1 2:1 5:1 
-1 1:1 
-1 2:1 5:1 
-1 1:1 
-1 1:1 
-1 1:1 4:1 
-1 1:1 4:1 
-1 1:1 
-1 1:1 
-1 1:1 
-1 1:1 
-1 1:1 
-1 1:1 
-1 1:1 
-1 1:1 
-1 1:1 
-1 1:1 
-1 1:1 
-1 1:1 
-1 1:1 
-1 1:1 
-1 1:1 
-1 1:1 
-1 1:1 4:1 
-1 1:1 
-1 1:1 
-1 1:1 
-1 1:1 4:1 
-1 1:1 
-1 1:1 
-1 1:1 
-1 1:1 
-1 1:1 
-1 1:1 
-1 1:1 
-1 2:1 5:1 
-1 1:1 
-1 1:1 
-1 1:1 
-1 1:1 
-1 1:1 4:1 
-1 3:1 
-1 1:1 4:1 
-1 1:1 
-1 3:1 
-1 1:1 
-1 3:1 
-1 1:1 4:1 
-1 1:1 
-1 1:1 
-1 3:1 
-1 3:1 
-1 2:1 5:1 
-1 2:1 5:1 
-1 1:1 
-1 1:1 
-1 2:1 5:1 
-1 1:1 
-1 3:1 
-1 3:1 
-1 1:1 
-1 2:1 5:1 
-0.89546709335140717 2:1 
-1 2:1 
-1 2:1 
-1 2:1 
-1 2:1 
-1 1:1 
-1 3:1 
-1 2:1 
-1 1:1 
-1 3:1 
-1 2:1 
-1 2:1 
-1 2:1 
-1 3:1 
-1 2:1 
-1 2:1 
-1 3:1 
-1 2:1 
-1 3:1 
-1 1:1 
-1 1:1 
-1 2:1 
-1 3:1 
-1 2:1 
-1 2:1 
-1 2:1 
-1 3:1 
-1 2:1 
-1 1:1 
-1 3:1 
-1 3:1 
-1 2:1 
-1 3:1 
-1 2:1 
-1 2:1 
-1 2:1 
-1 3:1 
-1 1:1 
-1 3:1 
-1 2:1 
-1 3:1 
-1 2:1 
-1 3:1 
-1 2:1 
-1 2:1 5:1 
-1 2:1 
-1 2:1 
-1 2:1 
-1 3:1 
-1 1:1 
-1 1:1 
-1 2:1 
-1 3:1 
-1 2:1 
-1 2:1 
-1 3:1 
-0.13127939513841147 5:1 
-1 5:1 
-1 2:1 
-1 2:1 
-1 3:1 
-1 2:1 
-1 1:1 
-1 1:1 
-1 2:1 
-1 5:1 
-1 2:1 
-1 2:1 
-1 2:1 
-1 2:1 
-1 1:1 
-1 2:1 
-1 2:1 
-1 1:1 
-1 2:1 
-1 2:1 
-1 2:1 
-1 2:1 
-1 2:1 
-1 3:1 
-1 2:1 
-1 2:1 
-1 5:1 
-1 3:1 
-1 2:1 5:1 
-1 2:1 
-1 2:1 
-1 2:1 
-1 1:1 
-1 5:1 
-1 1:1 
-1 3:1 
-1 1:1 
-1 2:1 
-1 3:1 
-1 3:1 
-1 2:1 
-1 1:1 
-1 3:1 
-1 3:1 
-1 5:1 
-1 2:1 
-1 2:1 
-1 2:1 
-1 2:1 
-1 1:1 
-1 2:1 
-1 1:1 
-1 1:1 
-1 3:1 
-1 2:1 
-1 2:1 
-1 2:1 
-1 1:1 
-1 1:1 
-1 2:1 
-1 5:1 
-1 2:1 
-1 2:1 
-1 1:1 
-1 1:1 
-1 3:1 
-1 2:1 
-1 2:1 
-1 2:1 
-1 3:1 
-1 1:1 
-1 2:1 
-1 2:1 
-1 2:1 
-1 5:1 
-1 2:1 
-1 2:1 
-1 2:1 
-1 3:1 
-1 2:1 
-1 2:1 
-1 1:1 
-1 2:1 
-1 1:1 
-1 2:1 
-1 3:1 
-1 2:1 
-1 2:1 
-1 2:1 
-1 2:1 
-1 2:1 
-1 2:1 
-1 2:1 
-1 2:1 
-1 1:1 
-1 3:1 
-1 1:1 
-1 2:1 
-1 2:1 
-1 3:1 
-1 3:1 
-1 2:1 
-1 2:1 
-1 2:1 
-1 2:1 
-1 2:1 
-1 2:1 
-1 1:1 
-1 3:1 
-1 3:1 
-1 2:1 
-1 2:1 
-1 2:1 
-1 2:1 
-1 5:1 
-1 2:1 
-1 2:1 5:1 
-1 1:1 
-1 3:1 
-1 3:1 
-1 3:1 
-1 5:1 
-1 5:1 
-0.20398746152490146 4:1 
-1 4:1 
-1 1:1 
-1 4:1 
-1 4:1 
-1 3:1 
-1 4:1 
-1 4:1 
-1 2:1 
-1 4:1 
-1 3:1 
-1 4:1 
-1 2:1 
-1 5:1 
-1 2:1 
-1 4:1 
-1 4:1 
-1 4:1 
-1 4:1 
-1 4:1 
-1 2:1 
-1 4:1 
-1 4:1 
-1 4:1 
-1 3:1 
-1 4:1 
-1 4:1 
-1 4:1 
-1 1:1 
-1 1:1 
-1 3:1 
-1 4:1 
-1 3:1 
-1 4:1 
-1 4:1 
-1 4:1 
-1 4:1 
-1 4:1 
-1 1:1 
-1 4:1 
-1 4:1 
-1 4:1 
-1 4:1 
-1 4:1 
-1 1:1 
-1 4:1 
-1 4:1 
-1 4:1 
-1 4:1 
-1 4:1 
-1 4:1 
-1 4:1 
-1 4:1 
-1 4:1 
-1 2:1 
-1 4:1 
-1 4:1 
-1 1:1 
-1 3:1 
-1 4:1 
-1 4:1 
-1 1:1 
-1 2:1 
-1 3:1 
-1 4:1 
-1 2:1 
-1 2:1 
-1 4:1 
-1 4:1 
-1 4:1 
-1 4:1 
-1 4:1 
-1 4:1 
-1 4:1 
-1 4:1 
-1 4:1 
-1 3:1 
-1 4:1 
-1 2:1 
-1 2:1 
-1 2:1 
-1 4:1 
-1 4:1 
-1 4:1 
-1 2:1 
-1 2:1 
-1 4:1 
-1 4:1 
-1 1:1 
-1 2:1 
-1 5:1 
-1 4:1 
-1 2:1 
-1 4:1 
-1 4:1 
-1 4:1 
-1 4:1 
-1 2:1 
-1 4:1 
-1 4:1 
-1 2:1 
-1 4:1 
-1 4:1 
-1 4:1 
-1 1:1 
-1 1:1 
-1 2:1 
-1 4:1 
-1 4:1 
-1 5:1 
-1 3:1 
-1 4:1 
-1 4:1 
-1 2:1 
-1 4:1 
-1 4:1 
-1 2:1 
-1 4:1 
-1 4:1 
-1 4:1 
-1 4:1 
-1 4:1 
-1 4:1 
-1 4:1 
-1 4:1 
-1 3:1 
-1 4:1 
-1 4:1 
-1 4:1 
-1 5:1 
-1 2:1 
-1 4:1 
-1 1:1 
-1 4:1 
-1 4:1 
-1 4:1 
-1 2:1 
-1 4:1 
-1 3:1 
-1 4:1 
-1 4:1 
-1 2:1 
-1 1:1 
-1 4:1 
-1 2:1 
-1 2:1 
-1 4:1 
-0.47476250673495263 3:1 
-1 2:1 
-1 4:1 
-1 4:1 
-1 4:1 
-1 1:1 
-1 4:1 
-1 4:1 
-1 4:1 
-1 1:1 
-1 1:1 4:1 
-1 5:1 
-1 1:1 
-1 4:1 
-1 4:1 
-1 4:1 
-1 4:1 
-1 4:1 
-1 2:1 
-1 4:1 
-1 4:1 
-1 4:1 
-1 2:1 
-1 4:1 
-1 4:1 
-0.43278309371250318 
-1 
-1 
-1 
-1 
-1 
-1 
-1 
-1 
-1 
-1 
-1 
-1 
-1 
-1 
-1 
-1 
-1 
-1 
-1 
-1 
-1 
-1 
-1 
-1 
-1 
-1 
-1 
-1 
-1 
-1 
-1 
-1 
-1 
-1 
-1 
-1 
-1 
-1 
-1 
-1 
-1 
-1 
-1 
-1 
-1 
-1 
-1 
-1 
-1 
-1 
-1 
-1 
-1 
-1 
-1 
-1 
-1 
-1 
-1 
-1 
-1 
-1 
-1 
-1 
-1 
-1 
-1 
-1 
-1 
-1 
-1 
-1 
-1 
-1 
-1 
-1 
-1 
-1 
-1 
-1 
-1 
-1 
-1 
-1 
-1 
-1 
-1 
-1 
-1 
-1 
-1 
-1 
-1 
-1 
-1 
-1 
-1 
-1 
-1 
-1 
-1 
-1 
-1 
-1 
-1 
-1 
-1 
-1 
-1 
-1 
-1 
-1 
-1 
-1 
-1 
-1 
-1 
-1 
-1 
-1 
-1 
-1 
-1 
-1 
-1 
-1 
-1 
-1 
-1 
-1 
-1 
-1 
-1 
-1 
-1 
-1 
-1 
-1 
-1 
-1 
-1 
-1 
-1 
-1 
-1 
-1 
